6, 230, -65
8, 225, -65
8, 225, -65
8, 226, -68
16, 226, -68
16, 226, -68
8, 231, -78
8, 231, -78
8, 231, -74
9, 240, -74
9, 240, -74
9, 238, -72
5, 238, -72
5, 238, -72
6, 239, -81
6, 239, -81
6, 239, -78
7, 237, -78
7, 237, -78
7, 236, -79
13, 236, -79
13, 236, -79
10, 244, -81
10, 244, -81
10, 244, -83
7, 236, -83
7, 236, -83
7, 236, -73
20, 236, -73
20, 236, -73
11, 226, -72
11, 226, -72
11, 226, -76
17, 220, -76
17, 220, -76
17, 228, -79
17, 228, -79
17, 228, -79
19, 241, -87
19, 241, -87
19, 241, -79
21, 244, -79
21, 244, -79
6, 234, -78
6, 234, -78
6, 234, -78
11, 234, -78
11, 234, -78
11, 234, -80
19, 234, -80
19, 234, -80
13, 232, -78
13, 232, -78
13, 232, -78
19, 234, -69
19, 234, -69
19, 217, -69
9, 217, -69
9, 217, -69
3, 228, -72
3, 228, -72
3, 228, -72
-1, 234, -79
-1, 234, -79
-1, 234, -80
8, 233, -80
8, 233, -80
11, 230, -74
11, 230, -74
11, 230, -74
5, 230, -73
5, 230, -73
5, 230, -71
15, 236, -71
15, 236, -71
22, 230, -80
22, 230, -80
22, 230, -80
12, 235, -80
12, 235, -80
12, 232, -77
11, 232, -77
11, 232, -77
13, 235, -82
13, 235, -82
13, 235, -88
19, 225, -88
19, 225, -88
19, 230, -85
16, 230, -85
16, 230, -85
17, 227, -71
17, 227, -71
17, 227, -68
13, 238, -68
13, 238, -68
13, 243, -89
13, 243, -89
13, 243, -89
13, 237, -82
13, 237, -82
13, 237, -75
11, 241, -75
11, 241, -75
5, 238, -76
5, 238, -76
5, 238, -76
6, 228, -79
6, 228, -79
6, 228, -83
-1, 227, -83
-1, 227, -83
6, 235, -74
6, 235, -74
6, 235, -74
8, 238, -82
8, 238, -82
8, 238, -79
13, 226, -79
13, 226, -79
13, 244, -72
6, 244, -72
6, 244, -72
7, 227, -72
7, 227, -72
7, 227, -80
12, 230, -80
12, 230, -80
12, 227, -78
14, 227, -78
14, 227, -78
13, 230, -75
13, 230, -75
13, 230, -79
9, 228, -79
9, 228, -79
9, 234, -69
21, 234, -69
21, 234, -69
11, 233, -79
11, 233, -79
11, 233, -86
15, 239, -86
15, 239, -86
10, 241, -87
10, 241, -87
10, 241, -87
12, 242, -79
12, 242, -79
12, 242, -76
16, 232, -76
16, 232, -76
6, 244, -84
6, 244, -84
6, 244, -84
11, 238, -85
11, 238, -85
11, 228, -84
16, 228, -84
16, 228, -84
6, 234, -76
6, 234, -76
6, 234, -76
8, 249, -80
8, 249, -80
8, 249, -78
14, 245, -78
14, 245, -78
14, 243, -75
14, 243, -75
14, 243, -75
13, 232, -84
13, 232, -84
13, 232, -77
19, 232, -77
19, 232, -77
11, 235, -85
11, 235, -85
11, 235, -85
15, 227, -82
15, 227, -82
15, 232, -70
8, 232, -70
8, 232, -70
15, 228, -71
15, 228, -71
15, 228, -81
15, 233, -81
15, 233, -81
15, 232, -83
7, 232, -83
7, 232, -83
3, 227, -70
3, 227, -70
3, 227, -78
8, 226, -78
8, 226, -78
8, 226, -84
15, 226, -84
15, 226, -84
15, 228, -85
15, 228, -85
15, 228, -75
23, 223, -75
23, 223, -75
23, 217, -73
15, 217, -73
15, 217, -73
4, 223, -80
4, 223, -80
4, 223, -72
11, 237, -72
11, 237, -72
11, 246, -80
9, 246, -80
9, 246, -80
11, 235, -79
11, 235, -79
11, 235, -80
15, 230, -80
15, 230, -80
12, 230, -75
12, 230, -75
12, 230, -75
4, 232, -75
4, 232, -75
4, 232, -78
6, 235, -78
6, 235, -78
4, 237, -74
4, 237, -74
4, 237, -74
18, 237, -76
18, 237, -76
18, 237, -83
22, 225, -83
22, 225, -83
18, 228, -90
18, 228, -90
18, 228, -90
15, 236, -80
15, 236, -80
15, 236, -74
12, 237, -74
12, 237, -74
12, 233, -76
12, 233, -76
12, 233, -76
12, 225, -78
12, 225, -78
12, 231, -88
0, 231, -88
0, 231, -88
4, 232, -74
4, 232, -74
4, 232, -74
17, 241, -87
17, 241, -87
17, 232, -71
5, 232, -71
5, 232, -71
8, 242, -71
8, 242, -71
8, 242, -71
22, 239, -72
22, 239, -72
22, 228, -73
12, 228, -73
12, 228, -73
12, 221, -69
12, 221, -69
12, 221, -69
15, 223, -80
15, 223, -80
15, 231, -77
10, 231, -77
10, 231, -77
11, 246, -76
11, 246, -76
11, 246, -69
7, 243, -69
7, 243, -69
7, 238, -77
3, 238, -77
3, 238, -77
11, 228, -70
11, 228, -70
11, 228, -81
17, 232, -81
17, 232, -81
17, 232, -81
-1, 232, -81
-1, 232, -81
8, 236, -75
8, 236, -75
8, 236, -69
16, 230, -69
16, 230, -69
16, 228, -76
6, 228, -76
6, 228, -76
2, 236, -80
2, 236, -80
2, 236, -78
15, 238, -78
15, 238, -78
15, 239, -84
1, 239, -84
1, 239, -84
8, 230, -81
8, 230, -81
8, 230, -72
16, 235, -72
16, 235, -72
16, 237, -70
-3, 237, -70
-3, 237, -70
12, 238, -73
12, 238, -73
12, 238, -78
8, 237, -78
8, 237, -78
8, 234, -89
19, 234, -89
19, 234, -89
15, 240, -86
15, 240, -86
15, 240, -77
10, 232, -77
10, 232, -77
16, 234, -77
16, 234, -77
16, 234, -77
16, 229, -89
16, 229, -89
16, 229, -79
4, 229, -79
4, 229, -79
5, 237, -78
5, 237, -78
5, 237, -78
4, 233, -66
4, 233, -66
4, 233, -79
13, 231, -79
13, 231, -79
17, 228, -77
17, 228, -77
17, 228, -77
18, 223, -76
18, 223, -76
18, 223, -74
15, 236, -74
15, 236, -74
17, 246, -72
17, 246, -72
17, 246, -72
14, 236, -75
14, 236, -75
14, 232, -77
9, 232, -77
9, 232, -77
13, 246, -81
13, 246, -81
13, 246, -81
13, 246, -85
13, 246, -85
13, 235, -69
0, 235, -69
0, 235, -69
9, 243, -68
9, 243, -68
9, 243, -68
8, 244, -72
8, 244, -72
8, 234, -68
13, 234, -68
13, 234, -68
9, 243, -90
9, 243, -90
9, 243, -90
17, 253, -81
17, 253, -81
17, 248, -74
14, 248, -74
14, 248, -74
9, 234, -73
9, 234, -73
9, 234, -73
10, 232, -74
10, 232, -74
10, 232, -74
21, 232, -74
21, 232, -74
21, 241, -81
21, 241, -81
21, 241, -81
8, 240, -69
8, 240, -69
8, 235, -71
15, 235, -71
15, 235, -71
15, 228, -73
15, 228, -73
15, 228, -73
8, 230, -73
8, 230, -73
8, 240, -67
8, 240, -67
8, 240, -67
12, 246, -63
12, 246, -63
12, 246, -63
25, 235, -64
25, 235, -64
25, 232, -71
17, 232, -71
17, 232, -71
5, 230, -71
5, 230, -71
5, 230, -76
8, 240, -76
8, 240, -76
8, 243, -82
13, 243, -82
13, 243, -82
21, 237, -71
21, 237, -71
21, 237, -77
13, 240, -77
13, 240, -77
13, 219, -77
17, 219, -77
17, 219, -77
16, 219, -80
16, 219, -80
16, 219, -77
17, 230, -77
17, 230, -77
13, 227, -84
13, 227, -84
13, 227, -84
15, 234, -90
15, 234, -90
15, 234, -83
2, 233, -83
2, 233, -83
11, 235, -70
11, 235, -70
11, 235, -70
12, 242, -77
12, 242, -77
12, 228, -73
6, 228, -73
6, 228, -73
10, 237, -76
10, 237, -76
10, 237, -76
13, 237, -84
13, 237, -84
13, 239, -75
5, 239, -75
5, 239, -75
8, 240, -71
8, 240, -71
8, 240, -71
6, 247, -75
6, 247, -75
6, 236, -83
2, 236, -83
2, 236, -83
2, 236, -75
2, 236, -75
2, 236, -75
11, 246, -74
11, 246, -74
11, 230, -70
8, 230, -70
8, 230, -70
11, 242, -63
11, 242, -63
11, 242, -63
5, 242, -73
5, 242, -73
5, 243, -77
8, 243, -77
8, 243, -77
10, 245, -78
10, 245, -78
10, 245, -78
15, 232, -73
15, 232, -73
15, 230, -73
11, 230, -73
11, 230, -73
14, 241, -77
14, 241, -77
14, 241, -77
18, 234, -73
18, 234, -73
18, 249, -74
13, 249, -74
13, 249, -74
14, 241, -74
14, 241, -74
14, 241, -74
17, 242, -74
17, 242, -74
17, 236, -80
10, 236, -80
10, 236, -80
8, 229, -79
8, 229, -79
8, 229, -86
8, 233, -86
8, 233, -86
8, 230, -81
6, 230, -81
6, 230, -81
9, 233, -82
9, 233, -82
9, 233, -81
7, 235, -81
7, 235, -81
7, 232, -78
8, 232, -78
8, 232, -78
20, 232, -87
20, 232, -87
20, 232, -87
6, 231, -70
6, 231, -70
6, 225, -77
3, 225, -77
3, 225, -77
13, 232, -82
13, 232, -82
13, 232, -82
11, 234, -67
11, 234, -67
11, 227, -70
15, 227, -70
15, 227, -70
19, 231, -72
19, 231, -72
19, 231, -69
21, 221, -69
21, 221, -69
21, 228, -77
6, 228, -77
6, 228, -77
12, 236, -72
12, 236, -72
12, 236, -69
19, 242, -69
19, 242, -69
19, 238, -72
13, 238, -72
13, 238, -72
10, 241, -79
10, 241, -79
10, 241, -74
21, 245, -74
21, 245, -74
16, 234, -78
16, 234, -78
16, 234, -78
18, 229, -69
18, 229, -69
18, 227, -78
25, 227, -78
25, 227, -78
26, 229, -73
26, 229, -73
26, 229, -73
21, 232, -71
21, 232, -71
21, 230, -74
1, 230, -74
1, 230, -74
1, 233, -79
1, 233, -79
1, 233, -81
4, 228, -81
4, 228, -81
4, 234, -83
15, 234, -83
15, 234, -83
19, 229, -76
19, 229, -76
19, 229, -81
9, 226, -81
9, 226, -81
9, 227, -84
13, 227, -84
13, 227, -84
17, 239, -87
17, 239, -87
17, 239, -84
11, 243, -84
11, 243, -84
11, 235, -77
8, 235, -77
8, 235, -77
11, 238, -74
11, 238, -74
11, 238, -74
9, 227, -74
9, 227, -74
9, 240, -72
1, 240, -72
1, 240, -72
15, 238, -77
15, 238, -77
15, 238, -77
23, 241, -77
23, 241, -77
23, 242, -83
18, 242, -83
18, 242, -83
7, 231, -73
7, 231, -73
7, 231, -84
6, 234, -84
6, 234, -84
6, 236, -82
6, 236, -82
6, 236, -82
13, 243, -69
13, 243, -69
13, 243, -75
15, 238, -75
15, 238, -75
15, 237, -77
11, 237, -77
11, 237, -77
16, 229, -80
16, 229, -80
16, 229, -81
15, 228, -81
15, 228, -81
18, 232, -80
18, 232, -80
18, 232, -80
28, 228, -84
28, 228, -84
28, 228, -79
21, 224, -79
21, 224, -79
12, 235, -81
12, 235, -81
12, 235, -81
7, 236, -85
7, 236, -85
7, 223, -76
9, 223, -76
9, 223, -76
0, 243, -81
0, 243, -81
0, 243, -81
5, 238, -79
5, 238, -79
5, 238, -82
5, 232, -82
5, 232, -82
10, 244, -79
10, 244, -79
10, 244, -79
16, 240, -79
16, 240, -79
16, 240, -81
19, 234, -81
19, 234, -81
21, 234, -85
21, 234, -85
21, 234, -85
2, 241, -80
2, 241, -80
2, 245, -75
8, 245, -75
8, 245, -75
18, 230, -69
18, 230, -69
18, 230, -69
8, 237, -76
8, 237, -76
8, 237, -76
3, 249, -76
3, 249, -76
17, 234, -73
17, 234, -73
17, 234, -73
15, 225, -71
15, 225, -71
15, 246, -68
18, 246, -68
18, 246, -68
8, 248, -74
8, 248, -74
8, 248, -74
7, 243, -77
7, 243, -77
7, 243, -73
-2, 233, -73
-2, 233, -73
0, 233, -82
0, 233, -82
0, 233, -82
10, 237, -74
10, 237, -74
10, 237, -74
6, 234, -74
6, 234, -74
-2, 249, -75
-2, 249, -75
-2, 249, -75
4, 262, -73
4, 262, -73
4, 262, -81
10, 249, -81
10, 249, -81
10, 242, -72
10, 242, -72
10, 242, -72
13, 233, -75
13, 233, -75
13, 237, -80
5, 237, -80
5, 237, -80
7, 238, -83
7, 238, -83
7, 238, -83
-1, 234, -69
-1, 234, -69
-1, 234, -72
4, 238, -72
4, 238, -72
10, 240, -73
10, 240, -73
10, 240, -73
17, 232, -76
17, 232, -76
17, 248, -79
14, 248, -79
14, 248, -79
17, 239, -78
17, 239, -78
17, 239, -78
10, 224, -81
10, 224, -81
10, 225, -72
15, 225, -72
15, 225, -72
6, 239, -70
6, 239, -70
6, 239, -82
10, 236, -82
10, 236, -82
10, 232, -79
11, 232, -79
11, 232, -79
18, 226, -73
18, 226, -73
18, 226, -73
15, 223, -73
15, 223, -73
15, 238, -74
23, 238, -74
23, 238, -74
8, 230, -67
8, 230, -67
8, 230, -75
18, 220, -75
18, 220, -75
17, 235, -73
17, 235, -73
17, 235, -73
20, 232, -66
20, 232, -66
20, 232, -73
8, 235, -73
8, 235, -73
9, 240, -85
9, 240, -85
9, 240, -85
4, 225, -76
4, 225, -76
4, 225, -74
20, 235, -74
20, 235, -74
12, 236, -78
12, 236, -78
12, 236, -78
13, 230, -80
13, 230, -80
13, 230, -68
12, 231, -68
12, 231, -68
12, 231, -73
12, 231, -73
12, 231, -73
10, 235, -73
10, 235, -73
10, 238, -74
7, 238, -74
7, 238, -74
9, 226, -80
9, 226, -80
9, 226, -80
4, 241, -76
4, 241, -76
4, 239, -71
11, 239, -71
11, 239, -71
7, 228, -74
7, 228, -74
7, 228, -74
10, 232, -79
10, 232, -79
10, 230, -77
16, 230, -77
16, 230, -77
12, 246, -77
12, 246, -77
12, 246, -77
6, 242, -74
6, 242, -74
6, 238, -79
8, 238, -79
8, 238, -79
10, 230, -77
10, 230, -77
10, 230, -77
4, 228, -81
4, 228, -81
4, 237, -78
-1, 237, -78
-1, 237, -78
9, 237, -84
9, 237, -84
9, 237, -84
9, 235, -72
9, 235, -72
9, 235, -74
12, 231, -74
12, 231, -74
16, 234, -73
16, 234, -73
16, 234, -73
11, 233, -77
11, 233, -77
11, 231, -75
7, 231, -75
7, 231, -75
10, 233, -74
10, 233, -74
10, 233, -74
10, 229, -82
10, 229, -82
10, 236, -82
12, 236, -82
12, 236, -82
16, 243, -73
16, 243, -73
16, 243, -77
13, 235, -77
13, 235, -77
13, 233, -72
16, 233, -72
16, 233, -72
22, 233, -71
22, 233, -71
22, 233, -77
9, 239, -77
9, 239, -77
9, 232, -86
1, 232, -86
1, 232, -86
-3, 233, -70
-3, 233, -70
-3, 233, -71
5, 242, -71
5, 242, -71
5, 237, -79
7, 237, -79
7, 237, -79
0, 234, -72
0, 234, -72
0, 234, -70
9, 237, -70
9, 237, -70
9, 236, -76
21, 236, -76
21, 236, -76
14, 231, -77
14, 231, -77
14, 231, -72
15, 229, -72
15, 229, -72
15, 240, -76
1, 240, -76
1, 240, -76
16, 245, -83
16, 245, -83
16, 245, -81
22, 233, -81
22, 233, -81
22, 236, -89
15, 236, -89
15, 236, -89
10, 236, -84
10, 236, -84
10, 236, -83
18, 235, -83
18, 235, -83
21, 236, -69
21, 236, -69
21, 236, -69
18, 239, -71
18, 239, -71
18, 229, -77
8, 229, -77
8, 229, -77
0, 232, -89
0, 232, -89
0, 232, -89
10, 236, -78
10, 236, -78
10, 236, -76
10, 232, -76
10, 232, -76
16, 227, -73
16, 227, -73
16, 227, -73
12, 229, -90
12, 229, -90
12, 238, -83
4, 238, -83
4, 238, -83
4, 243, -79
4, 243, -79
4, 243, -79
7, 229, -82
7, 229, -82
7, 231, -68
17, 231, -68
17, 231, -68
6, 237, -65
6, 237, -65
6, 237, -65
14, 230, -73
14, 230, -73
14, 241, -78
6, 241, -78
6, 241, -78
7, 245, -69
7, 245, -69
7, 245, -69
16, 237, -71
16, 237, -71
16, 242, -75
10, 242, -75
10, 242, -75
15, 234, -77
15, 234, -77
15, 234, -77
11, 235, -75
11, 235, -75
11, 242, -81
15, 242, -81
15, 242, -81
-2, 235, -76
-2, 235, -76
-2, 235, -77
4, 243, -77
4, 243, -77
4, 246, -77
13, 246, -77
13, 246, -77
11, 241, -65
11, 241, -65
11, 241, -70
-1, 240, -70
-1, 240, -70
-1, 237, -63
9, 237, -63
9, 237, -63
12, 235, -74
12, 235, -74
12, 235, -79
6, 243, -79
6, 243, -79
6, 227, -71
10, 227, -71
10, 227, -71
5, 231, -84
5, 231, -84
5, 231, -79
-4, 236, -79
-4, 236, -79
-4, 238, -82
-1, 238, -82
-1, 238, -82
-2, 246, -81
-2, 246, -81
-2, 246, -80
9, 237, -80
9, 237, -80
-1, 232, -65
-1, 232, -65
-1, 232, -65
11, 231, -80
11, 231, -80
11, 231, -83
2, 227, -83
2, 227, -83
7, 230, -78
7, 230, -78
7, 230, -78
6, 232, -72
6, 232, -72
6, 232, -72
6, 235, -72
6, 235, -72
6, 232, -72
4, 232, -72
4, 232, -72
-8, 239, -68
-8, 239, -68
-8, 239, -68
1, 234, -68
1, 234, -68
1, 229, -83
4, 229, -83
4, 229, -83
4, 225, -78
4, 225, -78
4, 225, -78
11, 240, -78
11, 240, -78
11, 232, -74
11, 232, -74
11, 232, -74
11, 221, -79
11, 221, -79
11, 221, -77
-1, 235, -77
-1, 235, -77
-1, 238, -71
-5, 238, -71
-5, 238, -71
-1, 245, -66
-1, 245, -66
-1, 245, -71
6, 245, -71
6, 245, -71
6, 229, -76
4, 229, -76
4, 229, -76
9, 237, -68
9, 237, -68
9, 237, -74
4, 239, -74
4, 239, -74
4, 243, -85
4, 243, -85
4, 243, -85
6, 236, -77
6, 236, -77
6, 236, -77
16, 243, -79
16, 243, -79
16, 242, -84
14, 242, -84
14, 242, -84
7, 225, -90
7, 225, -90
7, 225, -90
-1, 234, -82
-1, 234, -82
-1, 241, -73
-1, 241, -73
-1, 241, -73
7, 239, -75
7, 239, -75
7, 239, -75
12, 235, -76
12, 235, -76
12, 230, -70
4, 230, -70
4, 230, -70
-13, 232, -62
-13, 232, -62
-13, 232, -65
-8, 226, -65
-8, 226, -65
-8, 227, -67
-3, 227, -67
-3, 227, -67
-1, 240, -71
-1, 240, -71
-1, 240, -79
6, 228, -79
6, 228, -79
6, 230, -82
3, 230, -82
3, 230, -82
4, 238, -68
4, 238, -68
4, 238, -68
14, 229, -73
14, 229, -73
14, 239, -74
17, 239, -74
17, 239, -74
8, 241, -75
8, 241, -75
8, 241, -75
-1, 246, -75
-1, 246, -75
-1, 242, -85
4, 242, -85
4, 242, -85
1, 240, -78
1, 240, -78
1, 240, -78
3, 232, -79
3, 232, -79
3, 244, -78
10, 244, -78
10, 244, -78
3, 246, -76
3, 246, -76
3, 246, -76
6, 236, -74
6, 236, -74
6, 236, -70
5, 237, -70
5, 237, -70
7, 238, -70
7, 238, -70
7, 238, -70
3, 246, -73
3, 246, -73
3, 246, -71
6, 240, -71
6, 240, -71
6, 233, -74
13, 233, -74
13, 233, -74
13, 229, -81
13, 229, -81
13, 229, -84
3, 229, -84
3, 229, -84
3, 239, -83
7, 239, -83
7, 239, -83
9, 238, -79
9, 238, -79
9, 238, -74
6, 248, -74
6, 248, -74
6, 251, -83
4, 251, -83
4, 251, -83
8, 241, -85
8, 241, -85
8, 241, -85
17, 239, -75
17, 239, -75
17, 238, -80
5, 238, -80
5, 238, -80
-6, 236, -79
-6, 236, -79
-6, 236, -79
2, 232, -73
2, 232, -73
2, 235, -80
-10, 235, -80
-10, 235, -80
4, 238, -78
4, 238, -78
4, 238, -78
3, 236, -78
3, 236, -78
3, 244, -75
6, 244, -75
6, 244, -75
15, 241, -75
15, 241, -75
15, 241, -75
4, 242, -75
4, 242, -75
4, 234, -77
6, 234, -77
6, 234, -77
4, 229, -80
4, 229, -80
4, 229, -80
2, 239, -80
2, 239, -80
2, 239, -74
3, 229, -74
3, 229, -74
3, 226, -78
6, 226, -78
6, 226, -78
14, 224, -83
14, 224, -83
14, 224, -74
6, 238, -74
6, 238, -74
6, 242, -76
5, 242, -76
5, 242, -76
17, 235, -73
17, 235, -73
17, 235, -72
16, 233, -72
16, 233, -72
16, 240, -74
6, 240, -74
6, 240, -74
28, 238, -65
28, 238, -65
28, 238, -74
30, 235, -74
30, 235, -74
16, 230, -83
16, 230, -83
16, 230, -83
16, 241, -74
16, 241, -74
16, 241, -76
10, 227, -76
10, 227, -76
14, 225, -76
14, 225, -76
14, 225, -76
21, 235, -79
21, 235, -79
21, 229, -69
11, 229, -69
11, 229, -69
14, 231, -71
14, 231, -71
14, 231, -61
15, 230, -61
15, 230, -61
15, 237, -66
8, 237, -66
8, 237, -66
-2, 244, -78
-2, 244, -78
-2, 244, -79
0, 233, -79
0, 233, -79
0, 237, -86
-2, 237, -86
-2, 237, -86
3, 236, -81
3, 236, -81
3, 236, -81
14, 223, -81
14, 223, -81
14, 237, -79
19, 237, -79
19, 237, -79
15, 228, -68
15, 228, -68
15, 228, -77
4, 236, -77
4, 236, -77
4, 232, -74
10, 232, -74
10, 232, -74
13, 230, -69
13, 230, -69
13, 230, -64
10, 236, -64
10, 236, -64
12, 239, -72
12, 239, -72
12, 239, -72
8, 235, -79
8, 235, -79
8, 235, -77
19, 247, -77
19, 247, -77
14, 249, -82
14, 249, -82
14, 249, -82
11, 237, -77
11, 237, -77
11, 242, -80
7, 242, -80
7, 242, -80
-3, 232, -70
-3, 232, -70
-3, 232, -70
17, 226, -80
17, 226, -80
17, 221, -73
13, 221, -73
13, 221, -73
13, 240, -87
13, 240, -87
13, 240, -87
9, 242, -80
9, 242, -80
9, 232, -59
4, 232, -59
4, 232, -59
12, 239, -69
12, 239, -69
12, 239, -69
8, 222, -71
8, 222, -71
8, 221, -77
11, 221, -77
11, 221, -77
4, 233, -79
4, 233, -79
4, 233, -79
8, 231, -82
8, 231, -82
8, 242, -69
10, 242, -69
10, 242, -69
15, 251, -81
15, 251, -81
15, 251, -81
15, 220, -87
15, 220, -87
15, 237, -82
25, 237, -82
25, 237, -82
21, 236, -82
21, 236, -82
21, 236, -79
11, 241, -79
11, 241, -79
11, 241, -78
11, 241, -78
11, 241, -78
12, 235, -73
12, 235, -73
12, 235, -85
14, 234, -85
14, 234, -85
15, 228, -75
15, 228, -75
15, 228, -75
12, 234, -77
12, 234, -77
12, 234, -78
15, 246, -78
15, 246, -78
16, 228, -78
16, 228, -78
16, 228, -78
20, 218, -68
20, 218, -68
20, 231, -66
17, 231, -66
17, 231, -66
17, 239, -75
17, 239, -75
17, 239, -75
13, 231, -74
13, 231, -74
13, 232, -72
20, 232, -72
20, 232, -72
10, 217, -66
10, 217, -66
10, 217, -72
13, 232, -72
13, 232, -72
13, 244, -77
6, 244, -77
6, 244, -77
2, 242, -83
2, 242, -83
2, 242, -90
5, 237, -90
5, 237, -90
5, 237, -80
1, 237, -80
1, 237, -80
13, 231, -76
13, 231, -76
13, 231, -75
5, 237, -75
5, 237, -75
5, 241, -83
3, 241, -83
3, 241, -83
7, 234, -80
7, 234, -80
7, 234, -80
11, 239, -80
11, 239, -80
11, 227, -78
17, 227, -78
17, 227, -78
9, 231, -75
9, 231, -75
9, 231, -75
7, 237, -81
7, 237, -81
7, 231, -79
9, 231, -79
9, 231, -79
7, 224, -85
7, 224, -85
7, 224, -85
15, 234, -77
15, 234, -77
15, 234, -78
6, 245, -78
6, 245, -78
4, 242, -72
4, 242, -72
4, 242, -72
8, 234, -67
8, 234, -67
8, 234, -72
16, 235, -72
16, 235, -72
16, 239, -82
23, 239, -82
23, 239, -82
18, 237, -73
18, 237, -73
18, 237, -82
13, 231, -82
13, 231, -82
22, 225, -74
22, 225, -74
22, 225, -74
19, 225, -80
19, 225, -80
19, 233, -80
9, 233, -80
9, 233, -80
15, 239, -77
15, 239, -77
15, 239, -77
18, 233, -73
18, 233, -73
18, 223, -74
12, 223, -74
12, 223, -74
17, 227, -80
17, 227, -80
17, 227, -80
11, 243, -80
11, 243, -80
11, 237, -83
11, 237, -83
11, 237, -83
20, 233, -75
20, 233, -75
20, 233, -71
14, 227, -71
14, 227, -71
8, 233, -70
8, 233, -70
8, 233, -70
8, 231, -69
8, 231, -69
8, 231, -76
18, 233, -76
18, 233, -76
18, 230, -75
10, 230, -75
10, 230, -75
5, 240, -75
5, 240, -75
5, 240, -80
6, 230, -80
6, 230, -80
6, 233, -81
1, 233, -81
1, 233, -81
13, 221, -72
13, 221, -72
13, 221, -65
17, 230, -65
17, 230, -65
17, 241, -67
11, 241, -67
11, 241, -67
4, 237, -79
4, 237, -79
4, 237, -76
1, 232, -76
1, 232, -76
1, 231, -74
2, 231, -74
2, 231, -74
20, 230, -75
20, 230, -75
20, 230, -86
13, 236, -86
13, 236, -86
13, 240, -70
2, 240, -70
2, 240, -70
5, 235, -81
5, 235, -81
5, 235, -76
12, 242, -76
12, 242, -76
12, 239, -65
12, 239, -65
12, 239, -65
2, 240, -89
2, 240, -89
2, 240, -79
8, 239, -79
8, 239, -79
8, 231, -76
9, 231, -76
9, 231, -76
13, 239, -79
13, 239, -79
13, 239, -79
18, 238, -79
18, 238, -79
18, 242, -80
15, 242, -80
15, 242, -80
8, 239, -74
8, 239, -74
8, 239, -82
1, 234, -82
1, 234, -82
1, 227, -80
5, 227, -80
5, 227, -80
8, 241, -82
8, 241, -82
8, 241, -83
12, 252, -83
12, 252, -83
12, 228, -90
7, 228, -90
7, 228, -90
10, 230, -84
10, 230, -84
10, 230, -85
10, 235, -85
10, 235, -85
10, 231, -87
-7, 231, -87
-7, 231, -87
2, 234, -78
2, 234, -78
2, 234, -74
7, 229, -74
7, 229, -74
7, 232, -77
6, 232, -77
6, 232, -77
8, 234, -72
8, 234, -72
8, 234, -75
13, 239, -75
13, 239, -75
13, 227, -77
12, 227, -77
12, 227, -77
12, 238, -85
12, 238, -85
12, 238, -77
17, 238, -77
17, 238, -77
17, 238, -70
22, 238, -70
22, 238, -70
25, 230, -70
25, 230, -70
25, 230, -70
21, 238, -70
21, 238, -70
9, 241, -68
9, 241, -68
9, 241, -68
14, 231, -62
14, 231, -62
14, 231, -71
8, 224, -71
8, 224, -71
5, 225, -78
5, 225, -78
5, 225, -78
10, 235, -79
10, 235, -79
10, 235, -85
16, 239, -85
16, 239, -85
7, 241, -81
7, 241, -81
7, 241, -81
6, 239, -80
6, 239, -80
6, 239, -81
16, 233, -81
16, 233, -81
11, 226, -68
11, 226, -68
11, 226, -68
9, 234, -73
9, 234, -73
9, 234, -74
4, 241, -74
4, 241, -74
4, 237, -72
9, 237, -72
9, 237, -72
10, 228, -82
10, 228, -82
10, 228, -81
15, 242, -81
15, 242, -81
9, 246, -78
9, 246, -78
9, 246, -78
7, 233, -76
7, 233, -76
7, 233, -77
9, 232, -77
9, 232, -77
9, 239, -85
9, 239, -85
9, 239, -85
6, 243, -87
6, 243, -87
6, 243, -81
13, 239, -81
13, 239, -81
13, 222, -82
15, 222, -82
15, 222, -82
14, 228, -83
14, 228, -83
14, 228, -82
12, 239, -82
12, 239, -82
12, 237, -82
14, 237, -82
14, 237, -82
18, 237, -78
18, 237, -78
18, 237, -90
16, 240, -90
16, 240, -90
7, 234, -85
7, 234, -85
7, 234, -85
11, 236, -78
11, 236, -78
11, 236, -77
18, 224, -77
18, 224, -77
7, 230, -74
7, 230, -74
7, 230, -74
7, 234, -75
7, 234, -75
7, 234, -67
15, 242, -67
15, 242, -67
3, 239, -68
3, 239, -68
3, 239, -68
0, 237, -65
0, 237, -65
0, 237, -78
2, 238, -78
2, 238, -78
2, 242, -74
11, 242, -74
11, 242, -74
4, 235, -73
4, 235, -73
4, 235, -77
-11, 233, -77
-11, 233, -77
-11, 232, -89
15, 232, -89
15, 232, -89
20, 238, -72
20, 238, -72
20, 238, -70
12, 241, -70
12, 241, -70
5, 246, -75
5, 246, -75
5, 246, -75
10, 228, -80
10, 228, -80
10, 228, -80
7, 232, -80
7, 232, -80
-4, 241, -80
-4, 241, -80
-4, 241, -80
14, 232, -80
14, 232, -80
14, 234, -82
22, 234, -82
22, 234, -82
26, 238, -82
26, 238, -82
26, 238, -82
23, 237, -76
23, 237, -76
23, 236, -71
13, 236, -71
13, 236, -71
13, 232, -74
13, 232, -74
13, 232, -77
4, 237, -77
4, 237, -77
4, 231, -78
8, 231, -78
8, 231, -78
6, 236, -81
6, 236, -81
6, 236, -81
3, 236, -75
3, 236, -75
3, 231, -76
2, 231, -76
2, 231, -76
0, 224, -74
0, 224, -74
0, 224, -74
11, 234, -78
11, 234, -78
11, 237, -73
21, 237, -73
21, 237, -73
10, 237, -75
10, 237, -75
10, 237, -75
0, 240, -76
0, 240, -76
0, 227, -89
2, 227, -89
2, 227, -89
13, 219, -68
13, 219, -68
13, 219, -68
15, 235, -76
15, 235, -76
15, 244, -75
4, 244, -75
4, 244, -75
3, 244, -80
3, 244, -80
3, 244, -80
16, 241, -79
16, 241, -79
16, 238, -76
7, 238, -76
7, 238, -76
8, 245, -78
8, 245, -78
8, 245, -78
8, 240, -74
8, 240, -74
8, 240, -87
11, 243, -87
11, 243, -87
17, 234, -74
17, 234, -74
17, 234, -74
17, 238, -75
17, 238, -75
17, 231, -79
28, 231, -79
28, 231, -79
21, 238, -74
21, 238, -74
21, 238, -77
8, 240, -77
8, 240, -77
8, 236, -78
8, 236, -78
8, 236, -78
20, 225, -80
20, 225, -80
20, 225, -80
14, 235, -84
14, 235, -84
14, 231, -82
10, 231, -82
10, 231, -82
11, 229, -74
11, 229, -74
11, 229, -65
4, 244, -65
4, 244, -65
4, 243, -77
13, 243, -77
13, 243, -77
11, 244, -79
11, 244, -79
11, 244, -75
10, 240, -75
10, 240, -75
10, 233, -73
0, 233, -73
0, 233, -73
11, 230, -76
11, 230, -76
11, 230, -77
20, 234, -77
20, 234, -77
12, 234, -69
12, 234, -69
12, 234, -69
10, 240, -74
10, 240, -74
10, 244, -63
13, 244, -63
13, 244, -63
1, 251, -69
1, 251, -69
1, 251, -69
8, 252, -87
8, 252, -87
8, 246, -86
1, 246, -86
1, 246, -86
7, 239, -85
7, 239, -85
7, 239, -85
16, 244, -77
16, 244, -77
16, 244, -83
20, 239, -83
20, 239, -83
18, 233, -83
18, 233, -83
18, 233, -83
-1, 240, -74
-1, 240, -74
-1, 243, -78
9, 243, -78
9, 243, -78
21, 236, -75
21, 236, -75
21, 236, -75
14, 235, -80
14, 235, -80
14, 235, -76
20, 235, -76
20, 235, -76
26, 228, -74
26, 228, -74
26, 228, -74
14, 235, -72
14, 235, -72
14, 233, -73
8, 233, -73
8, 233, -73
6, 234, -66
6, 234, -66
6, 234, -73
9, 232, -73
9, 232, -73
9, 232, -70
2, 232, -70
2, 232, -70
-2, 233, -61
-2, 233, -61
-2, 233, -61
3, 237, -57
3, 237, -57
3, 232, -82
5, 232, -82
5, 232, -82
11, 231, -79
11, 231, -79
11, 231, -79
13, 232, -74
13, 232, -74
13, 227, -71
18, 227, -71
18, 227, -71
9, 230, -79
9, 230, -79
9, 230, -79
16, 229, -70
16, 229, -70
16, 231, -77
12, 231, -77
12, 231, -77
20, 236, -70
20, 236, -70
20, 236, -75
21, 249, -75
21, 249, -75
21, 236, -74
19, 236, -74
19, 236, -74
18, 238, -73
18, 238, -73
18, 238, -75
13, 234, -75
13, 234, -75
12, 227, -83
12, 227, -83
12, 227, -83
15, 247, -65
15, 247, -65
15, 247, -65
15, 243, -65
15, 243, -65
19, 232, -73
19, 232, -73
19, 232, -73
19, 234, -73
19, 234, -73
19, 229, -88
12, 229, -88
12, 229, -88
11, 232, -89
11, 232, -89
11, 232, -79
11, 234, -79
11, 234, -79
11, 234, -82
2, 234, -82
2, 234, -82
11, 228, -79
11, 228, -79
11, 228, -71
9, 240, -71
9, 240, -71
9, 240, -79
14, 240, -79
14, 240, -79
11, 241, -83
11, 241, -83
11, 241, -77
10, 252, -77
10, 252, -77
10, 242, -80
10, 242, -80
10, 242, -80
0, 231, -84
0, 231, -84
0, 231, -80
6, 232, -80
6, 232, -80
6, 225, -83
4, 225, -83
4, 225, -83
13, 240, -82
13, 240, -82
13, 240, -76
23, 244, -76
23, 244, -76
23, 239, -74
12, 239, -74
12, 239, -74
11, 238, -74
11, 238, -74
11, 238, -81
16, 243, -81
16, 243, -81
8, 227, -91
8, 227, -91
8, 227, -91
14, 236, -81
14, 236, -81
14, 236, -76
11, 235, -76
11, 235, -76
13, 230, -81
13, 230, -81
13, 230, -81
13, 234, -79
13, 234, -79
13, 248, -80
14, 248, -80
14, 248, -80
20, 242, -67
20, 242, -67
20, 242, -70
14, 228, -70
14, 228, -70
14, 227, -78
7, 227, -78
7, 227, -78
9, 241, -88
9, 241, -88
9, 241, -88
4, 243, -88
4, 243, -88
4, 242, -73
8, 242, -73
8, 242, -73
2, 239, -80
2, 239, -80
2, 239, -80
8, 238, -74
8, 238, -74
8, 240, -76
14, 240, -76
14, 240, -76
13, 244, -83
13, 244, -83
13, 244, -83
7, 232, -71
7, 232, -71
7, 235, -75
8, 235, -75
8, 235, -75
14, 235, -78
14, 235, -78
14, 235, -78
9, 228, -75
9, 228, -75
9, 243, -65
-1, 243, -65
-1, 243, -65
16, 236, -66
16, 236, -66
16, 236, -66
23, 232, -78
23, 232, -78
23, 234, -90
18, 234, -90
18, 234, -90
19, 234, -78
19, 234, -78
19, 234, -79
15, 223, -79
15, 223, -79
15, 235, -67
14, 235, -67
14, 235, -67
14, 235, -76
14, 235, -76
14, 235, -81
17, 247, -81
17, 247, -81
13, 235, -82
13, 235, -82
13, 235, -82
17, 234, -72
17, 234, -72
17, 240, -74
6, 240, -74
6, 240, -74
12, 241, -83
12, 241, -83
12, 241, -83
4, 236, -73
4, 236, -73
4, 236, -82
8, 219, -82
8, 219, -82
8, 226, -79
8, 226, -79
8, 226, -79
6, 231, -87
6, 231, -87
6, 231, -74
3, 232, -74
3, 232, -74
3, 223, -71
8, 223, -71
8, 223, -71
3, 238, -79
3, 238, -79
3, 238, -80
5, 227, -80
5, 227, -80
5, 232, -73
22, 232, -73
22, 232, -73
19, 242, -77
19, 242, -77
19, 242, -70
8, 233, -70
8, 233, -70
8, 236, -77
10, 236, -77
10, 236, -77
-5, 240, -73
-5, 240, -73
-5, 240, -75
1, 224, -75
1, 224, -75
1, 242, -75
6, 242, -75
6, 242, -75
17, 237, -79
17, 237, -79
17, 237, -79
16, 234, -79
16, 234, -79
16, 230, -75
15, 230, -75
15, 230, -75
16, 230, -81
16, 230, -81
16, 230, -80
17, 235, -80
17, 235, -80
17, 236, -82
15, 236, -82
15, 236, -82
11, 238, -77
11, 238, -77
11, 238, -82
4, 238, -82
4, 238, -82
21, 238, -75
21, 238, -75
21, 238, -75
13, 238, -75
13, 238, -75
13, 229, -85
8, 229, -85
8, 229, -85
17, 225, -80
17, 225, -80
17, 225, -80
10, 231, -84
10, 231, -84
10, 237, -71
4, 237, -71
4, 237, -71
-1, 234, -68
-1, 234, -68
-1, 234, -68
12, 238, -79
12, 238, -79
12, 241, -81
7, 241, -81
7, 241, -81
13, 238, -82
13, 238, -82
13, 238, -79
13, 224, -79
13, 224, -79
13, 231, -88
13, 231, -88
13, 231, -88
19, 230, -84
19, 230, -84
19, 230, -75
11, 224, -75
11, 224, -75
11, 226, -77
11, 226, -77
11, 226, -77
1, 239, -74
1, 239, -74
1, 239, -72
5, 227, -72
5, 227, -72
5, 231, -81
1, 231, -81
1, 231, -81
-1, 239, -79
-1, 239, -79
-1, 239, -74
4, 233, -74
4, 233, -74
4, 240, -76
-2, 240, -76
-2, 240, -76
11, 220, -79
11, 220, -79
11, 220, -71
0, 234, -71
0, 234, -71
0, 228, -67
7, 228, -67
7, 228, -67
8, 236, -75
8, 236, -75
8, 236, -74
11, 247, -74
11, 247, -74
11, 244, -74
11, 244, -74
11, 244, -74
12, 238, -80
12, 238, -80
12, 238, -71
11, 224, -71
11, 224, -71
11, 232, -65
20, 232, -65
20, 232, -65
14, 234, -73
14, 234, -73
14, 234, -75
11, 230, -75
11, 230, -75
16, 241, -81
16, 241, -81
16, 241, -81
10, 231, -69
10, 231, -69
10, 225, -61
11, 225, -61
11, 225, -61
3, 239, -76
3, 239, -76
3, 239, -76
13, 233, -79
13, 233, -79
13, 235, -72
21, 235, -72
21, 235, -72
12, 227, -72
12, 227, -72
12, 227, -82
14, 225, -82
14, 225, -82
14, 223, -77
13, 223, -77
13, 223, -77
2, 235, -81
2, 235, -81
2, 235, -77
-3, 238, -77
-3, 238, -77
-3, 239, -84
5, 239, -84
5, 239, -84
6, 240, -78
6, 240, -78
6, 240, -81
14, 245, -81
14, 245, -81
14, 243, -74
7, 243, -74
7, 243, -74
7, 244, -86
7, 244, -86
7, 244, -80
14, 238, -80
14, 238, -80
14, 234, -76
13, 234, -76
13, 234, -76
15, 230, -83
15, 230, -83
15, 230, -74
-1, 233, -74
-1, 233, -74
-1, 229, -81
13, 229, -81
13, 229, -81
13, 234, -84
13, 234, -84
13, 234, -67
5, 243, -67
5, 243, -67
6, 235, -79
6, 235, -79
6, 235, -79
16, 229, -85
16, 229, -85
16, 229, -81
9, 229, -81
9, 229, -81
4, 224, -84
4, 224, -84
4, 224, -84
9, 237, -78
9, 237, -78
9, 237, -68
5, 228, -68
5, 228, -68
5, 223, -63
4, 223, -63
4, 223, -63
10, 227, -79
10, 227, -79
10, 227, -74
13, 233, -74
13, 233, -74
14, 234, -83
14, 234, -83
14, 234, -83
15, 232, -89
15, 232, -89
15, 232, -82
11, 230, -82
11, 230, -82
12, 240, -83
12, 240, -83
12, 240, -83
10, 238, -76
10, 238, -76
10, 236, -69
15, 236, -69
15, 236, -69
13, 228, -79
13, 228, -79
13, 228, -71
4, 239, -71
4, 239, -71
4, 237, -77
10, 237, -77
10, 237, -77
-5, 237, -79
-5, 237, -79
-5, 237, -82
2, 237, -82
2, 237, -82
2, 244, -82
2, 244, -82
2, 244, -82
4, 243, -82
4, 243, -82
4, 243, -82
11, 235, -74
11, 235, -74
11, 229, -70
10, 229, -70
10, 229, -70
10, 232, -71
10, 232, -71
10, 232, -84
9, 232, -84
9, 232, -84
9, 226, -84
5, 226, -84
5, 226, -84
15, 228, -78
15, 228, -78
15, 228, -78
9, 238, -72
9, 238, -72
9, 232, -74
2, 232, -74
2, 232, -74
-1, 235, -82
-1, 235, -82
-1, 235, -82
-1, 232, -71
-1, 232, -71
-1, 238, -71
5, 238, -71
5, 238, -71
13, 246, -82
13, 246, -82
13, 246, -82
17, 246, -71
17, 246, -71
17, 231, -64
10, 231, -64
10, 231, -64
11, 227, -79
11, 227, -79
11, 227, -78
16, 232, -78
16, 232, -78
16, 232, -78
14, 232, -78
14, 232, -78
8, 238, -77
8, 238, -77
8, 238, -78
13, 232, -78
13, 232, -78
13, 225, -75
11, 225, -75
11, 225, -75
8, 227, -71
8, 227, -71
8, 227, -77
8, 240, -77
8, 240, -77
8, 237, -88
9, 237, -88
9, 237, -88
3, 238, -79
3, 238, -79
3, 238, -80
9, 240, -80
9, 240, -80
9, 233, -79
17, 233, -79
17, 233, -79
18, 230, -80
18, 230, -80
18, 230, -82
14, 243, -82
14, 243, -82
14, 225, -83
0, 225, -83
0, 225, -83
16, 229, -81
16, 229, -81
16, 229, -84
25, 235, -84
25, 235, -84
25, 232, -82
21, 232, -82
21, 232, -82
14, 232, -84
14, 232, -84
14, 232, -78
12, 235, -78
12, 235, -78
8, 229, -73
8, 229, -73
8, 229, -73
13, 233, -72
13, 233, -72
13, 233, -72
14, 238, -72
14, 238, -72
13, 238, -78
13, 238, -78
13, 238, -78
12, 236, -82
12, 236, -82
12, 233, -82
16, 233, -82
16, 233, -82
9, 246, -77
9, 246, -77
9, 246, -77
11, 233, -75
11, 233, -75
11, 228, -76
4, 228, -76
4, 228, -76
6, 237, -84
6, 237, -84
6, 237, -84
18, 237, -83
18, 237, -83
18, 235, -86
18, 235, -86
18, 235, -86
20, 233, -75
20, 233, -75
20, 233, -75
17, 232, -87
17, 232, -87
17, 239, -87
25, 239, -87
25, 239, -87
23, 246, -80
23, 246, -80
23, 246, -84
17, 234, -84
17, 234, -84
17, 233, -79
21, 233, -79
21, 233, -79
14, 229, -78
14, 229, -78
14, 229, -79
11, 241, -79
11, 241, -79
9, 226, -77
9, 226, -77
9, 226, -77
8, 230, -77
8, 230, -77
8, 230, -75
13, 227, -75
13, 227, -75
13, 227, -71
5, 227, -71
5, 227, -71
5, 237, -76
5, 237, -76
5, 237, -71
4, 235, -71
4, 235, -71
4, 231, -79
6, 231, -79
6, 231, -79
8, 233, -79
8, 233, -79
8, 233, -84
10, 231, -84
10, 231, -84
10, 240, -82
14, 240, -82
14, 240, -82
13, 238, -81
13, 238, -81
13, 238, -77
11, 239, -77
11, 239, -77
11, 242, -72
7, 242, -72
7, 242, -72
9, 235, -86
9, 235, -86
9, 235, -77
10, 229, -77
10, 229, -77
10, 229, -83
8, 229, -83
8, 229, -83
11, 235, -72
11, 235, -72
11, 235, -69
14, 221, -69
14, 221, -69
14, 230, -68
5, 230, -68
5, 230, -68
4, 233, -74
4, 233, -74
4, 233, -74
-1, 230, -74
-1, 230, -74
-1, 230, -78
15, 230, -78
15, 230, -78
7, 229, -69
7, 229, -69
7, 229, -75
2, 233, -75
2, 233, -75
2, 224, -70
12, 224, -70
12, 224, -70
18, 235, -81
18, 235, -81
18, 235, -89
0, 240, -89
0, 240, -89
0, 231, -68
14, 231, -68
14, 231, -68
9, 229, -72
9, 229, -72
9, 229, -75
15, 238, -75
15, 238, -75
15, 239, -69
17, 239, -69
17, 239, -69
20, 231, -78
20, 231, -78
20, 231, -78
10, 232, -78
10, 232, -78
7, 233, -78
7, 233, -78
7, 233, -78
7, 230, -76
7, 230, -76
7, 230, -77
13, 238, -77
13, 238, -77
13, 236, -75
9, 236, -75
9, 236, -75
-1, 237, -80
-1, 237, -80
-1, 237, -82
6, 246, -82
6, 246, -82
6, 247, -81
12, 247, -81
12, 247, -81
11, 248, -73
11, 248, -73
11, 248, -82
4, 235, -82
4, 235, -82
4, 234, -81
8, 234, -81
8, 234, -81
11, 238, -75
11, 238, -75
11, 238, -66
7, 233, -66
7, 233, -66
8, 234, -62
8, 234, -62
8, 234, -62
6, 219, -74
6, 219, -74
6, 219, -76
0, 237, -76
0, 237, -76
0, 238, -78
-5, 238, -78
-5, 238, -78
-7, 229, -77
-7, 229, -77
-7, 229, -81
7, 232, -81
7, 232, -81
7, 224, -76
9, 224, -76
9, 224, -76
7, 237, -71
7, 237, -71
7, 237, -70
7, 234, -70
7, 234, -70
7, 234, -78
11, 234, -78
11, 234, -78
7, 233, -79
7, 233, -79
7, 233, -79
11, 227, -74
11, 227, -74
11, 235, -71
2, 235, -71
2, 235, -71
1, 243, -73
1, 243, -73
1, 243, -73
8, 235, -76
8, 235, -76
8, 241, -73
9, 241, -73
9, 241, -73
2, 236, -78
2, 236, -78
2, 236, -78
9, 229, -75
9, 229, -75
9, 229, -74
8, 234, -74
8, 234, -74
20, 235, -65
20, 235, -65
20, 235, -65
15, 234, -74
15, 234, -74
15, 229, -65
1, 229, -65
1, 229, -65
7, 222, -73
7, 222, -73
7, 222, -73
15, 229, -75
15, 229, -75
15, 225, -80
18, 225, -80
18, 225, -80
22, 231, -86
22, 231, -86
22, 231, -86
8, 232, -86
8, 232, -86
8, 225, -81
9, 225, -81
9, 225, -81
16, 230, -82
16, 230, -82
16, 230, -82
0, 227, -79
0, 227, -79
0, 235, -74
1, 235, -74
1, 235, -74
10, 228, -77
10, 228, -77
10, 228, -77
13, 231, -76
13, 231, -76
13, 236, -77
20, 236, -77
20, 236, -77
22, 239, -71
22, 239, -71
22, 239, -82
7, 241, -82
7, 241, -82
7, 236, -83
10, 236, -83
10, 236, -83
9, 228, -78
9, 228, -78
9, 228, -78
15, 235, -75
15, 235, -75
15, 234, -82
11, 234, -82
11, 234, -82
5, 230, -81
5, 230, -81
5, 230, -81
11, 236, -72
11, 236, -72
11, 233, -71
21, 233, -71
21, 233, -71
18, 223, -82
18, 223, -82
18, 223, -80
12, 226, -80
12, 226, -80
12, 228, -77
6, 228, -77
6, 228, -77
3, 237, -80
3, 237, -80
3, 237, -84
19, 237, -84
19, 237, -84
19, 244, -73
16, 244, -73
16, 244, -73
15, 240, -74
15, 240, -74
15, 240, -69
12, 240, -69
12, 240, -69
12, 239, -78
14, 239, -78
14, 239, -78
12, 231, -75
12, 231, -75
12, 231, -76
6, 226, -76
6, 226, -76
3, 225, -76
3, 225, -76
3, 225, -76
9, 236, -76
9, 236, -76
9, 236, -76
9, 234, -76
9, 234, -76
9, 232, -74
23, 232, -74
23, 232, -74
19, 224, -79
19, 224, -79
19, 224, -77
7, 227, -77
7, 227, -77
7, 234, -72
10, 234, -72
10, 234, -72
19, 227, -69
19, 227, -69
19, 227, -78
14, 231, -78
14, 231, -78
15, 235, -81
15, 235, -81
15, 235, -81
10, 241, -75
10, 241, -75
10, 239, -75
13, 239, -75
13, 239, -75
11, 232, -66
11, 232, -66
11, 232, -66
10, 233, -76
10, 233, -76
10, 224, -77
18, 224, -77
18, 224, -77
12, 221, -71
12, 221, -71
12, 221, -75
4, 232, -75
4, 232, -75
4, 237, -77
5, 237, -77
5, 237, -77
-8, 232, -73
-8, 232, -73
-8, 232, -78
8, 235, -78
8, 235, -78
8, 227, -80
4, 227, -80
4, 227, -80
8, 228, -78
8, 228, -78
8, 228, -78
19, 226, -84
19, 226, -84
19, 233, -84
17, 233, -84
17, 233, -84
14, 239, -70
14, 239, -70
14, 239, -78
6, 245, -78
6, 245, -78
6, 232, -77
10, 232, -77
10, 232, -77
26, 231, -75
26, 231, -75
26, 231, -75
17, 231, -75
17, 231, -75
17, 233, -76
6, 233, -76
6, 233, -76
13, 238, -71
13, 238, -71
13, 238, -75
3, 237, -75
3, 237, -75
3, 245, -64
8, 245, -64
8, 245, -64
7, 245, -63
7, 245, -63
7, 245, -71
14, 233, -71
14, 233, -71
14, 233, -64
11, 233, -64
11, 233, -64
5, 245, -69
5, 245, -69
5, 245, -89
4, 240, -89
4, 240, -89
4, 249, -73
5, 249, -73
5, 249, -73
15, 242, -71
15, 242, -71
15, 242, -71
8, 246, -80
8, 246, -80
8, 231, -88
8, 231, -88
8, 231, -88
12, 225, -82
12, 225, -82
12, 225, -82
12, 230, -87
12, 230, -87
12, 228, -85
14, 228, -85
14, 228, -85
9, 244, -77
9, 244, -77
9, 244, -77
8, 241, -85
8, 241, -85
8, 239, -88
7, 239, -88
7, 239, -88
13, 242, -75
13, 242, -75
13, 242, -75
-1, 234, -75
-1, 234, -75
-1, 246, -76
1, 246, -76
1, 246, -76
4, 244, -73
4, 244, -73
4, 244, -73
8, 241, -74
8, 241, -74
8, 241, -70
4, 238, -70
4, 238, -70
6, 249, -74
6, 249, -74
6, 249, -74
15, 240, -73
15, 240, -73
15, 240, -72
17, 231, -72
17, 231, -72
15, 232, -69
15, 232, -69
15, 232, -69
15, 239, -67
15, 239, -67
15, 239, -71
14, 239, -71
14, 239, -71
15, 235, -87
15, 235, -87
15, 235, -83
15, 225, -83
15, 225, -83
15, 233, -85
9, 233, -85
9, 233, -85
-1, 230, -88
-1, 230, -88
-1, 230, -76
6, 231, -76
6, 231, -76
6, 237, -77
2, 237, -77
2, 237, -77
9, 239, -84
9, 239, -84
9, 239, -84
-2, 237, -85
-2, 237, -85
-2, 244, -85
-11, 244, -85
-11, 244, -85
-2, 252, -71
-2, 252, -71
-2, 252, -68
-1, 238, -68
-1, 238, -68
-1, 241, -78
-5, 241, -78
-5, 241, -78
9, 229, -80
9, 229, -80
9, 229, -80
11, 236, -80
11, 236, -80
11, 233, -76
9, 233, -76
9, 233, -76
-5, 237, -76
-5, 237, -76
-5, 237, -67
3, 234, -67
3, 234, -67
3, 230, -66
13, 230, -66
13, 230, -66
10, 229, -76
10, 229, -76
10, 229, -70
7, 234, -70
7, 234, -70
7, 232, -70
4, 232, -70
4, 232, -70
7, 235, -73
7, 235, -73
7, 235, -76
17, 237, -76
17, 237, -76
17, 244, -81
11, 244, -81
11, 244, -81
1, 227, -74
1, 227, -74
1, 227, -72
6, 228, -72
6, 228, -72
6, 234, -70
2, 234, -70
2, 234, -70
10, 235, -73
10, 235, -73
10, 235, -74
7, 232, -74
7, 232, -74
7, 233, -75
6, 233, -75
6, 233, -75
1, 238, -74
1, 238, -74
1, 238, -74
8, 234, -63
8, 234, -63
8, 230, -66
12, 230, -66
12, 230, -66
14, 241, -78
14, 241, -78
14, 241, -78
9, 227, -81
9, 227, -81
9, 231, -77
8, 231, -77
8, 231, -77
9, 241, -79
9, 241, -79
9, 241, -79
7, 235, -74
7, 235, -74
7, 235, -74
12, 219, -74
12, 219, -74
12, 223, -82
12, 223, -82
12, 223, -82
4, 231, -85
4, 231, -85
4, 231, -77
5, 243, -77
5, 243, -77
4, 239, -79
4, 239, -79
4, 239, -79
18, 241, -85
18, 241, -85
18, 241, -82
15, 237, -82
15, 237, -82
13, 234, -84
13, 234, -84
13, 234, -84
18, 228, -80
18, 228, -80
18, 234, -80
10, 234, -80
10, 234, -80
4, 235, -81
4, 235, -81
4, 235, -81
13, 241, -73
13, 241, -73
13, 239, -81
0, 239, -81
0, 239, -81
-3, 241, -86
-3, 241, -86
-3, 241, -86
7, 237, -75
7, 237, -75
7, 232, -73
11, 232, -73
11, 232, -73
16, 227, -79
16, 227, -79
16, 227, -79
1, 228, -73
1, 228, -73
1, 233, -80
-7, 233, -80
-7, 233, -80
3, 238, -83
3, 238, -83
3, 238, -83
21, 236, -75
21, 236, -75
21, 229, -76
6, 229, -76
6, 229, -76
10, 235, -82
10, 235, -82
10, 235, -82
12, 244, -82
12, 244, -82
12, 235, -83
21, 235, -83
21, 235, -83
23, 228, -78
23, 228, -78
23, 228, -71
9, 234, -71
9, 234, -71
9, 233, -78
2, 233, -78
2, 233, -78
13, 232, -79
13, 232, -79
13, 232, -79
13, 240, -94
13, 240, -94
13, 233, -78
10, 233, -78
10, 233, -78
-5, 228, -70
-5, 228, -70
-5, 228, -81
0, 228, -81
0, 228, -81
0, 233, -77
3, 233, -77
3, 233, -77
15, 228, -79
15, 228, -79
15, 228, -79
16, 226, -79
16, 226, -79
16, 236, -68
3, 236, -68
3, 236, -68
17, 239, -75
17, 239, -75
17, 239, -74
13, 229, -74
13, 229, -74
13, 234, -74
11, 234, -74
11, 234, -74
14, 229, -78
14, 229, -78
14, 229, -77
12, 242, -77
12, 242, -77
-3, 244, -71
-3, 244, -71
-3, 244, -71
6, 239, -81
6, 239, -81
6, 239, -75
-1, 239, -75
-1, 239, -75
10, 232, -77
10, 232, -77
10, 232, -77
4, 234, -74
4, 234, -74
4, 234, -73
3, 224, -73
3, 224, -73
17, 229, -85
17, 229, -85
17, 229, -85
16, 240, -84
16, 240, -84
16, 236, -80
20, 236, -80
20, 236, -80
16, 236, -85
16, 236, -85
16, 236, -85
10, 234, -72
10, 234, -72
10, 233, -70
11, 233, -70
11, 233, -70
13, 228, -77
13, 228, -77
13, 228, -77
14, 232, -77
14, 232, -77
14, 234, -76
3, 234, -76
3, 234, -76
12, 226, -80
12, 226, -80
12, 226, -72
16, 237, -72
16, 237, -72
16, 225, -85
13, 225, -85
13, 225, -85
4, 227, -73
4, 227, -73
4, 227, -74
-5, 233, -74
-5, 233, -74
1, 229, -81
1, 229, -81
1, 229, -81
2, 238, -77
2, 238, -77
2, 238, -83
5, 237, -83
5, 237, -83
5, 238, -81
8, 238, -81
8, 238, -81
15, 241, -77
15, 241, -77
15, 241, -85
5, 241, -85
5, 241, -85
5, 240, -86
-1, 240, -86
-1, 240, -86
8, 233, -78
8, 233, -78
8, 233, -70
6, 230, -70
6, 230, -70
6, 234, -78
9, 234, -78
9, 234, -78
-2, 242, -71
-2, 242, -71
-2, 242, -71
5, 235, -75
5, 235, -75
5, 235, -81
-1, 235, -81
-1, 235, -81
9, 248, -82
9, 248, -82
9, 248, -82
11, 247, -69
11, 247, -69
11, 241, -68
9, 241, -68
9, 241, -68
4, 237, -66
4, 237, -66
4, 237, -66
5, 243, -61
5, 243, -61
5, 243, -69
19, 235, -69
19, 235, -69
5, 245, -72
5, 245, -72
5, 245, -72
8, 239, -75
8, 239, -75
8, 239, -78
5, 233, -78
5, 233, -78
5, 236, -77
8, 236, -77
8, 236, -77
17, 236, -74
17, 236, -74
17, 236, -67
11, 235, -67
11, 235, -67
13, 246, -84
13, 246, -84
13, 246, -84
19, 239, -82
19, 239, -82
19, 239, -81
4, 232, -81
4, 232, -81
14, 229, -67
14, 229, -67
14, 229, -67
15, 231, -72
15, 231, -72
15, 234, -79
13, 234, -79
13, 234, -79
17, 234, -77
17, 234, -77
17, 234, -77
15, 242, -76
15, 242, -76
15, 244, -73
10, 244, -73
10, 244, -73
10, 239, -73
10, 239, -73
10, 239, -73
18, 226, -73
18, 226, -73
18, 240, -75
14, 240, -75
14, 240, -75
16, 250, -67
16, 250, -67
16, 250, -69
11, 243, -69
11, 243, -69
13, 247, -83
13, 247, -83
13, 247, -83
17, 245, -74
17, 245, -74
17, 245, -78
31, 237, -78
31, 237, -78
23, 239, -76
23, 239, -76
23, 239, -76
15, 239, -81
15, 239, -81
15, 246, -74
11, 246, -74
11, 246, -74
1, 239, -75
1, 239, -75
1, 239, -75
8, 234, -78
8, 234, -78
8, 235, -77
9, 235, -77
9, 235, -77
16, 232, -70
16, 232, -70
16, 232, -70
20, 227, -74
20, 227, -74
20, 249, -85
3, 249, -85
3, 249, -85
2, 240, -83
2, 240, -83
2, 240, -83
5, 228, -78
5, 228, -78
5, 240, -78
10, 240, -78
10, 240, -78
15, 231, -84
15, 231, -84
15, 231, -84
17, 224, -76
17, 224, -76
17, 236, -83
19, 236, -83
19, 236, -83
21, 224, -81
21, 224, -81
21, 224, -71
19, 227, -71
19, 227, -71
19, 234, -73
15, 234, -73
15, 234, -73
17, 242, -85
17, 242, -85
17, 242, -85
18, 241, -85
18, 241, -85
17, 241, -79
17, 241, -79
17, 241, -79
8, 241, -75
8, 241, -75
8, 241, -78
11, 238, -78
11, 238, -78
20, 236, -81
20, 236, -81
20, 236, -81
9, 222, -70
9, 222, -70
9, 222, -62
7, 239, -62
7, 239, -62
7, 231, -70
9, 231, -70
9, 231, -70
17, 239, -75
17, 239, -75
17, 239, -69
22, 234, -69
22, 234, -69
18, 238, -69
18, 238, -69
18, 238, -69
14, 226, -73
14, 226, -73
14, 226, -76
19, 231, -76
19, 231, -76
19, 243, -79
19, 243, -79
19, 243, -79
14, 239, -76
14, 239, -76
14, 232, -81
16, 232, -81
16, 232, -81
12, 219, -73
12, 219, -73
12, 219, -73
14, 229, -82
14, 229, -82
14, 237, -89
5, 237, -89
5, 237, -89
17, 225, -76
17, 225, -76
17, 225, -85
21, 230, -85
21, 230, -85
21, 227, -78
22, 227, -78
22, 227, -78
16, 231, -80
16, 231, -80
16, 231, -72
14, 244, -72
14, 244, -72
14, 238, -73
15, 238, -73
15, 238, -73
11, 231, -80
11, 231, -80
11, 231, -80
5, 231, -80
5, 231, -80
15, 232, -79
15, 232, -79
15, 232, -79
21, 233, -73
21, 233, -73
21, 243, -75
15, 243, -75
15, 243, -75
23, 240, -62
23, 240, -62
23, 240, -62
23, 236, -65
23, 236, -65
23, 231, -75
17, 231, -75
17, 231, -75
19, 235, -79
19, 235, -79
19, 235, -70
22, 238, -70
22, 238, -70
22, 230, -70
21, 230, -70
21, 230, -70
12, 234, -77
12, 234, -77
12, 234, -74
17, 244, -74
17, 244, -74
14, 234, -81
14, 234, -81
14, 234, -81
19, 236, -79
19, 236, -79
19, 239, -86
22, 239, -86
22, 239, -86
31, 236, -76
31, 236, -76
31, 236, -76
16, 244, -75
16, 244, -75
16, 234, -84
7, 234, -84
7, 234, -84
10, 232, -83
10, 232, -83
10, 232, -83
7, 234, -79
7, 234, -79
7, 236, -74
6, 236, -74
6, 236, -74
0, 240, -68
0, 240, -68
0, 240, -68
12, 236, -67
12, 236, -67
12, 240, -73
-1, 240, -73
-1, 240, -73
16, 244, -76
16, 244, -76
16, 244, -76
14, 245, -79
14, 245, -79
14, 240, -70
13, 240, -70
13, 240, -70
14, 235, -79
14, 235, -79
14, 235, -71
18, 215, -71
18, 215, -71
18, 226, -66
11, 226, -66
11, 226, -66
1, 241, -66
1, 241, -66
1, 241, -77
18, 237, -77
18, 237, -77
18, 243, -90
21, 243, -90
21, 243, -90
19, 240, -85
19, 240, -85
19, 240, -77
11, 231, -77
11, 231, -77
12, 231, -79
12, 231, -79
12, 231, -79
24, 236, -78
24, 236, -78
24, 244, -81
24, 244, -81
24, 244, -81
21, 241, -79
21, 241, -79
21, 241, -79
9, 231, -76
9, 231, -76
9, 239, -73
7, 239, -73
7, 239, -73
8, 224, -76
8, 224, -76
8, 224, -76
4, 233, -73
4, 233, -73
4, 240, -82
5, 240, -82
5, 240, -82
-2, 239, -74
-2, 239, -74
-2, 239, -74
2, 238, -75
2, 238, -75
2, 238, -69
13, 230, -69
13, 230, -69
6, 221, -87
6, 221, -87
6, 221, -87
-1, 233, -83
-1, 233, -83
-1, 233, -83
4, 228, -83
4, 228, -83
10, 224, -88
10, 224, -88
10, 224, -88
9, 235, -78
9, 235, -78
9, 235, -85
4, 234, -85
4, 234, -85
4, 231, -80
13, 231, -80
13, 231, -80
10, 232, -69
10, 232, -69
10, 232, -76
-3, 237, -76
-3, 237, -76
-11, 243, -72
-11, 243, -72
-11, 243, -72
-3, 240, -75
-3, 240, -75
-3, 228, -82
-2, 228, -82
-2, 228, -82
10, 240, -80
10, 240, -80
10, 240, -80
2, 229, -85
2, 229, -85
2, 242, -78
2, 242, -78
2, 242, -78
2, 237, -78
2, 237, -78
2, 237, -78
4, 229, -84
4, 229, -84
4, 229, -80
8, 234, -80
8, 234, -80
-6, 234, -71
-6, 234, -71
-6, 234, -71
2, 244, -72
2, 244, -72
2, 244, -69
3, 235, -69
3, 235, -69
3, 229, -76
13, 229, -76
13, 229, -76
10, 234, -75
10, 234, -75
10, 234, -76
6, 230, -76
6, 230, -76
12, 224, -78
12, 224, -78
12, 224, -78
22, 233, -75
22, 233, -75
22, 233, -67
12, 239, -67
12, 239, -67
16, 231, -78
16, 231, -78
16, 231, -78
18, 231, -72
18, 231, -72
18, 229, -71
24, 229, -71
24, 229, -71
24, 239, -69
24, 239, -69
24, 239, -69
21, 240, -69
21, 240, -69
21, 240, -71
14, 240, -71
14, 240, -71
22, 243, -76
22, 243, -76
22, 243, -83
16, 230, -83
16, 230, -83
16, 231, -81
12, 231, -81
12, 231, -81
15, 237, -80
15, 237, -80
15, 237, -68
13, 242, -68
13, 242, -68
4, 238, -77
4, 238, -77
4, 238, -77
7, 239, -69
7, 239, -69
7, 239, -79
7, 245, -79
7, 245, -79
7, 230, -78
10, 230, -78
10, 230, -78
9, 229, -74
9, 229, -74
9, 229, -70
6, 242, -70
6, 242, -70
6, 240, -73
11, 240, -73
11, 240, -73
15, 233, -84
15, 233, -84
15, 233, -83
9, 233, -83
9, 233, -83
9, 238, -95
9, 238, -95
9, 238, -95
13, 242, -78
13, 242, -78
13, 242, -78
14, 231, -78
14, 231, -78
13, 226, -77
13, 226, -77
13, 226, -77
11, 248, -76
11, 248, -76
11, 248, -82
3, 232, -82
3, 232, -82
11, 228, -81
11, 228, -81
11, 228, -81
6, 246, -73
6, 246, -73
6, 246, -72
7, 242, -72
7, 242, -72
4, 235, -69
4, 235, -69
4, 235, -69
7, 241, -74
7, 241, -74
7, 241, -72
5, 239, -72
5, 239, -72
5, 224, -77
10, 224, -77
10, 224, -77
16, 223, -77
16, 223, -77
16, 223, -79
8, 234, -79
8, 234, -79
8, 234, -78
15, 234, -78
15, 234, -78
11, 233, -74
11, 233, -74
11, 233, -74
22, 229, -74
22, 229, -74
27, 226, -65
27, 226, -65
27, 226, -65
10, 232, -74
10, 232, -74
10, 240, -79
-3, 240, -79
-3, 240, -79
1, 233, -68
1, 233, -68
1, 233, -68
0, 236, -78
0, 236, -78
0, 236, -81
10, 229, -81
10, 229, -81
19, 240, -75
19, 240, -75
19, 240, -75
17, 231, -85
17, 231, -85
17, 229, -82
18, 229, -82
18, 229, -82
20, 238, -83
20, 238, -83
20, 238, -83
9, 231, -77
9, 231, -77
9, 230, -80
0, 230, -80
0, 230, -80
-1, 237, -78
-1, 237, -78
-1, 237, -78
9, 232, -72
9, 232, -72
9, 240, -78
12, 240, -78
12, 240, -78
13, 238, -68
13, 238, -68
13, 238, -68
16, 243, -67
16, 243, -67
16, 235, -67
15, 235, -67
15, 235, -67
10, 234, -69
10, 234, -69
10, 234, -80
8, 241, -80
8, 241, -80
8, 236, -82
7, 236, -82
7, 236, -82
2, 237, -81
2, 237, -81
2, 237, -81
7, 236, -73
7, 236, -73
7, 227, -68
5, 227, -68
5, 227, -68
8, 227, -75
8, 227, -75
8, 227, -75
8, 239, -76
8, 239, -76
8, 239, -78
5, 241, -78
5, 241, -78
5, 236, -73
3, 236, -73
3, 236, -73
8, 244, -69
8, 244, -69
8, 244, -70
8, 238, -70
8, 238, -70
8, 235, -78
19, 235, -78
19, 235, -78
27, 234, -76
27, 234, -76
27, 234, -75
28, 236, -75
28, 236, -75
28, 238, -88
18, 238, -88
18, 238, -88
9, 238, -88
9, 238, -88
9, 238, -72
0, 228, -72
0, 228, -72
0, 228, -70
16, 228, -70
16, 228, -70
-2, 237, -74
-2, 237, -74
-2, 237, -76
6, 242, -76
6, 242, -76
6, 239, -73
5, 239, -73
5, 239, -73
6, 237, -75
6, 237, -75
6, 237, -74
8, 239, -74
8, 239, -74
8, 233, -80
13, 233, -80
13, 233, -80
3, 236, -77
3, 236, -77
3, 236, -70
18, 245, -70
18, 245, -70
18, 234, -82
22, 234, -82
22, 234, -82
19, 238, -74
19, 238, -74
19, 238, -74
16, 235, -74
16, 235, -74
16, 235, -71
15, 235, -71
15, 235, -71
22, 241, -69
22, 241, -69
22, 241, -57
10, 233, -57
10, 233, -57
5, 242, -70
5, 242, -70
5, 242, -70
9, 234, -78
9, 234, -78
9, 234, -84
15, 231, -84
15, 231, -84
13, 232, -76
13, 232, -76
13, 232, -76
2, 251, -73
2, 251, -73
2, 251, -67
7, 239, -67
7, 239, -67
7, 226, -66
6, 226, -66
6, 226, -66
5, 235, -79
5, 235, -79
5, 235, -97
9, 238, -97
9, 238, -97
9, 236, -82
14, 236, -82
14, 236, -82
22, 237, -90
22, 237, -90
22, 237, -81
15, 228, -81
15, 228, -81
15, 231, -88
15, 231, -88
15, 231, -88
17, 229, -70
17, 229, -70
17, 229, -71
12, 221, -71
12, 221, -71
4, 232, -73
4, 232, -73
4, 232, -73
6, 228, -83
6, 228, -83
6, 228, -86
18, 241, -86
18, 241, -86
7, 239, -74
7, 239, -74
7, 239, -74
14, 236, -78
14, 236, -78
14, 236, -81
11, 239, -81
11, 239, -81
4, 246, -88
4, 246, -88
4, 246, -88
10, 248, -80
10, 248, -80
10, 248, -72
0, 237, -72
0, 237, -72
13, 231, -73
13, 231, -73
13, 231, -73
7, 224, -73
7, 224, -73
7, 224, -60
19, 239, -60
19, 239, -60
0, 232, -69
0, 232, -69
0, 232, -69
12, 236, -66
12, 236, -66
12, 244, -78
6, 244, -78
6, 244, -78
10, 236, -81
10, 236, -81
10, 236, -81
7, 241, -74
7, 241, -74
7, 234, -79
11, 234, -79
11, 234, -79
7, 231, -71
7, 231, -71
7, 231, -71
8, 236, -75
8, 236, -75
8, 236, -71
8, 233, -71
8, 233, -71
5, 242, -72
5, 242, -72
5, 242, -72
7, 253, -83
7, 253, -83
7, 253, -84
15, 252, -84
15, 252, -84
19, 252, -87
19, 252, -87
19, 252, -87
8, 242, -71
8, 242, -71
8, 242, -64
14, 238, -64
14, 238, -64
13, 234, -67
13, 234, -67
13, 234, -67
9, 233, -66
9, 233, -66
9, 233, -62
17, 230, -62
17, 230, -62
-1, 245, -71
-1, 245, -71
-1, 245, -71
-7, 244, -67
-7, 244, -67
-7, 244, -74
4, 232, -74
4, 232, -74
9, 226, -76
9, 226, -76
9, 226, -76
0, 232, -77
0, 232, -77
0, 232, -72
13, 237, -72
13, 237, -72
7, 234, -80
7, 234, -80
7, 234, -80
4, 232, -78
4, 232, -78
4, 232, -70
16, 232, -70
16, 232, -70
16, 236, -75
6, 236, -75
6, 236, -75
17, 241, -76
17, 241, -76
17, 241, -89
13, 239, -89
13, 239, -89
2, 230, -78
2, 230, -78
2, 230, -78
6, 225, -81
6, 225, -81
6, 225, -84
14, 226, -84
14, 226, -84
14, 213, -82
20, 213, -82
20, 213, -82
20, 221, -80
20, 221, -80
20, 221, -80
2, 237, -80
2, 237, -80
8, 239, -78
8, 239, -78
8, 239, -78
19, 244, -86
19, 244, -86
19, 244, -88
10, 232, -88
10, 232, -88
20, 221, -94
20, 221, -94
20, 221, -94
13, 235, -89
13, 235, -89
13, 235, -83
12, 241, -83
12, 241, -83
6, 243, -83
6, 243, -83
6, 243, -83
9, 242, -86
9, 242, -86
9, 242, -81
16, 240, -81
16, 240, -81
22, 240, -72
22, 240, -72
22, 240, -72
16, 230, -71
16, 230, -71
16, 229, -75
16, 229, -75
16, 229, -75
13, 238, -75
13, 238, -75
13, 238, -75
3, 236, -84
3, 236, -84
3, 235, -82
9, 235, -82
9, 235, -82
8, 246, -82
8, 246, -82
8, 246, -82
13, 244, -78
13, 244, -78
13, 245, -77
8, 245, -77
8, 245, -77
12, 231, -75
12, 231, -75
12, 231, -75
12, 230, -77
12, 230, -77
12, 238, -77
15, 238, -77
15, 238, -77
5, 243, -69
5, 243, -69
5, 243, -80
-1, 244, -80
-1, 244, -80
-1, 236, -81
1, 236, -81
1, 236, -81
4, 249, -82
4, 249, -82
4, 249, -82
-5, 240, -73
-5, 240, -73
-5, 232, -76
6, 232, -76
6, 232, -76
6, 229, -83
6, 229, -83
6, 229, -83
16, 231, -89
16, 231, -89
16, 238, -86
25, 238, -86
25, 238, -86
13, 229, -79
13, 229, -79
13, 229, -79
17, 220, -80
17, 220, -80
17, 224, -90
5, 224, -90
5, 224, -90
7, 219, -78
7, 219, -78
7, 219, -78
8, 231, -68
8, 231, -68
8, 242, -73
4, 242, -73
4, 242, -73
9, 238, -81
9, 238, -81
9, 238, -81
3, 230, -77
3, 230, -77
3, 230, -77
7, 232, -77
7, 232, -77
16, 233, -74
16, 233, -74
16, 233, -74
7, 228, -82
7, 228, -82
7, 228, -79
3, 229, -79
3, 229, -79
1, 236, -80
1, 236, -80
1, 236, -80
5, 229, -68
5, 229, -68
5, 229, -71
13, 232, -71
13, 232, -71
19, 234, -82
19, 234, -82
19, 234, -82
19, 230, -74
19, 230, -74
19, 230, -81
-3, 226, -81
-3, 226, -81
8, 219, -70
8, 219, -70
8, 219, -70
5, 238, -64
5, 238, -64
5, 238, -61
9, 246, -61
9, 246, -61
9, 239, -76
6, 239, -76
6, 239, -76
7, 234, -84
7, 234, -84
7, 234, -85
2, 227, -85
2, 227, -85
2, 231, -81
4, 231, -81
4, 231, -81
19, 235, -74
19, 235, -74
19, 235, -70
19, 243, -70
19, 243, -70
19, 238, -66
12, 238, -66
12, 238, -66
20, 240, -76
20, 240, -76
20, 240, -72
12, 230, -72
12, 230, -72
17, 236, -83
17, 236, -83
17, 236, -83
10, 233, -76
10, 233, -76
10, 233, -66
4, 242, -66
4, 242, -66
0, 231, -74
0, 231, -74
0, 231, -74
6, 235, -77
6, 235, -77
6, 235, -77
17, 242, -77
17, 242, -77
14, 241, -83
14, 241, -83
14, 241, -83
15, 226, -69
15, 226, -69
15, 228, -70
19, 228, -70
19, 228, -70
15, 222, -75
15, 222, -75
15, 222, -75
12, 235, -72
12, 235, -72
12, 235, -79
19, 235, -79
19, 235, -79
16, 236, -70
16, 236, -70
16, 236, -74
17, 242, -74
17, 242, -74
17, 240, -77
17, 240, -77
17, 240, -77
9, 238, -86
9, 238, -86
9, 238, -86
14, 228, -86
14, 228, -86
14, 228, -81
17, 228, -81
17, 228, -81
10, 227, -82
10, 227, -82
10, 227, -77
10, 238, -77
10, 238, -77
5, 236, -79
5, 236, -79
5, 236, -79
6, 229, -79
6, 229, -79
6, 229, -73
18, 235, -73
18, 235, -73
18, 231, -75
11, 231, -75
11, 231, -75
14, 232, -77
14, 232, -77
14, 232, -72
9, 230, -72
9, 230, -72
13, 228, -72
13, 228, -72